digraph Tree {
node [shape=box] ;
0 [label="checking_balance <= 1.5\nentropy = 0.876\nsamples = 700\nvalue = [493, 207]\nclass = No"] ;
1 [label="months_loan_duration <= 22.5\nentropy = 0.988\nsamples = 380\nvalue = [214, 166]\nclass = No"] ;
0 -> 1 [labeldistance=2.5, labelangle=45, headlabel="True"] ;
2 [label="credit_history <= 3.5\nentropy = 0.933\nsamples = 218\nvalue = [142, 76]\nclass = No"] ;
1 -> 2 ;
3 [label="credit_history <= 0.5\nentropy = 0.91\nsamples = 209\nvalue = [141, 68]\nclass = No"] ;
2 -> 3 ;
4 [label="age <= 28.5\nentropy = 0.681\nsamples = 61\nvalue = [50, 11]\nclass = No"] ;
3 -> 4 ;
5 [label="entropy = 0.0\nsamples = 10\nvalue = [10, 0]\nclass = No"] ;
4 -> 5 ;
6 [label="age <= 34.5\nentropy = 0.752\nsamples = 51\nvalue = [40, 11]\nclass = No"] ;
4 -> 6 ;
7 [label="amount <= 1680.5\nentropy = 0.994\nsamples = 11\nvalue = [5, 6]\nclass = Yes"] ;
6 -> 7 ;
8 [label="entropy = 0.0\nsamples = 4\nvalue = [0, 4]\nclass = Yes"] ;
7 -> 8 ;
9 [label="entropy = 0.863\nsamples = 7\nvalue = [5, 2]\nclass = No"] ;
7 -> 9 ;
10 [label="job <= 2.5\nentropy = 0.544\nsamples = 40\nvalue = [35, 5]\nclass = No"] ;
6 -> 10 ;
11 [label="entropy = 0.65\nsamples = 30\nvalue = [25, 5]\nclass = No"] ;
10 -> 11 ;
12 [label="entropy = 0.0\nsamples = 10\nvalue = [10, 0]\nclass = No"] ;
10 -> 12 ;
13 [label="amount <= 971.0\nentropy = 0.962\nsamples = 148\nvalue = [91, 57]\nclass = No"] ;
3 -> 13 ;
14 [label="amount <= 632.0\nentropy = 0.963\nsamples = 31\nvalue = [12, 19]\nclass = Yes"] ;
13 -> 14 ;
15 [label="purpose <= 3.5\nentropy = 0.592\nsamples = 7\nvalue = [6, 1]\nclass = No"] ;
14 -> 15 ;
16 [label="entropy = 1.0\nsamples = 2\nvalue = [1, 1]\nclass = No"] ;
15 -> 16 ;
17 [label="entropy = 0.0\nsamples = 5\nvalue = [5, 0]\nclass = No"] ;
15 -> 17 ;
18 [label="age <= 37.5\nentropy = 0.811\nsamples = 24\nvalue = [6, 18]\nclass = Yes"] ;
14 -> 18 ;
19 [label="entropy = 0.523\nsamples = 17\nvalue = [2, 15]\nclass = Yes"] ;
18 -> 19 ;
20 [label="entropy = 0.985\nsamples = 7\nvalue = [4, 3]\nclass = No"] ;
18 -> 20 ;
21 [label="months_loan_duration <= 11.5\nentropy = 0.91\nsamples = 117\nvalue = [79, 38]\nclass = No"] ;
13 -> 21 ;
22 [label="amount <= 10931.5\nentropy = 0.529\nsamples = 25\nvalue = [22, 3]\nclass = No"] ;
21 -> 22 ;
23 [label="entropy = 0.414\nsamples = 24\nvalue = [22, 2]\nclass = No"] ;
22 -> 23 ;
24 [label="entropy = 0.0\nsamples = 1\nvalue = [0, 1]\nclass = Yes"] ;
22 -> 24 ;
25 [label="amount <= 8724.5\nentropy = 0.958\nsamples = 92\nvalue = [57, 35]\nclass = No"] ;
21 -> 25 ;
26 [label="entropy = 0.948\nsamples = 90\nvalue = [57, 33]\nclass = No"] ;
25 -> 26 ;
27 [label="entropy = 0.0\nsamples = 2\nvalue = [0, 2]\nclass = Yes"] ;
25 -> 27 ;
28 [label="amount <= 482.5\nentropy = 0.503\nsamples = 9\nvalue = [1, 8]\nclass = Yes"] ;
2 -> 28 ;
29 [label="entropy = 0.0\nsamples = 1\nvalue = [1, 0]\nclass = No"] ;
28 -> 29 ;
30 [label="entropy = 0.0\nsamples = 8\nvalue = [0, 8]\nclass = Yes"] ;
28 -> 30 ;
31 [label="amount <= 2313.0\nentropy = 0.991\nsamples = 162\nvalue = [72, 90]\nclass = Yes"] ;
1 -> 31 ;
32 [label="age <= 21.0\nentropy = 0.734\nsamples = 34\nvalue = [7, 27]\nclass = Yes"] ;
31 -> 32 ;
33 [label="entropy = 0.0\nsamples = 1\nvalue = [1, 0]\nclass = No"] ;
32 -> 33 ;
34 [label="other_credit <= 0.5\nentropy = 0.684\nsamples = 33\nvalue = [6, 27]\nclass = Yes"] ;
32 -> 34 ;
35 [label="entropy = 0.0\nsamples = 6\nvalue = [0, 6]\nclass = Yes"] ;
34 -> 35 ;
36 [label="checking_balance <= 0.5\nentropy = 0.764\nsamples = 27\nvalue = [6, 21]\nclass = Yes"] ;
34 -> 36 ;
37 [label="employment_duration <= 1.5\nentropy = 0.971\nsamples = 10\nvalue = [4, 6]\nclass = Yes"] ;
36 -> 37 ;
38 [label="entropy = 0.0\nsamples = 3\nvalue = [3, 0]\nclass = No"] ;
37 -> 38 ;
39 [label="entropy = 0.592\nsamples = 7\nvalue = [1, 6]\nclass = Yes"] ;
37 -> 39 ;
40 [label="age <= 51.5\nentropy = 0.523\nsamples = 17\nvalue = [2, 15]\nclass = Yes"] ;
36 -> 40 ;
41 [label="entropy = 0.0\nsamples = 14\nvalue = [0, 14]\nclass = Yes"] ;
40 -> 41 ;
42 [label="entropy = 0.918\nsamples = 3\nvalue = [2, 1]\nclass = No"] ;
40 -> 42 ;
43 [label="amount <= 12296.5\nentropy = 1.0\nsamples = 128\nvalue = [65, 63]\nclass = No"] ;
31 -> 43 ;
44 [label="savings_balance <= 2.5\nentropy = 0.996\nsamples = 121\nvalue = [65, 56]\nclass = No"] ;
43 -> 44 ;
45 [label="months_loan_duration <= 43.5\nentropy = 0.999\nsamples = 100\nvalue = [48, 52]\nclass = Yes"] ;
44 -> 45 ;
46 [label="percent_of_income <= 2.5\nentropy = 0.99\nsamples = 77\nvalue = [43, 34]\nclass = No"] ;
45 -> 46 ;
47 [label="entropy = 0.89\nsamples = 39\nvalue = [27, 12]\nclass = No"] ;
46 -> 47 ;
48 [label="entropy = 0.982\nsamples = 38\nvalue = [16, 22]\nclass = Yes"] ;
46 -> 48 ;
49 [label="purpose <= 3.5\nentropy = 0.755\nsamples = 23\nvalue = [5, 18]\nclass = Yes"] ;
45 -> 49 ;
50 [label="entropy = 0.961\nsamples = 13\nvalue = [5, 8]\nclass = Yes"] ;
49 -> 50 ;
51 [label="entropy = 0.0\nsamples = 10\nvalue = [0, 10]\nclass = Yes"] ;
49 -> 51 ;
52 [label="age <= 32.5\nentropy = 0.702\nsamples = 21\nvalue = [17, 4]\nclass = No"] ;
44 -> 52 ;
53 [label="credit_history <= 1.5\nentropy = 0.946\nsamples = 11\nvalue = [7, 4]\nclass = No"] ;
52 -> 53 ;
54 [label="entropy = 0.985\nsamples = 7\nvalue = [3, 4]\nclass = Yes"] ;
53 -> 54 ;
55 [label="entropy = 0.0\nsamples = 4\nvalue = [4, 0]\nclass = No"] ;
53 -> 55 ;
56 [label="entropy = 0.0\nsamples = 10\nvalue = [10, 0]\nclass = No"] ;
52 -> 56 ;
57 [label="entropy = 0.0\nsamples = 7\nvalue = [0, 7]\nclass = Yes"] ;
43 -> 57 ;
58 [label="other_credit <= 0.5\nentropy = 0.552\nsamples = 320\nvalue = [279, 41]\nclass = No"] ;
0 -> 58 [labeldistance=2.5, labelangle=-45, headlabel="False"] ;
59 [label="purpose <= 1.5\nentropy = 0.934\nsamples = 40\nvalue = [26, 14]\nclass = No"] ;
58 -> 59 ;
60 [label="months_loan_duration <= 16.5\nentropy = 0.949\nsamples = 19\nvalue = [7, 12]\nclass = Yes"] ;
59 -> 60 ;
61 [label="entropy = 0.0\nsamples = 2\nvalue = [2, 0]\nclass = No"] ;
60 -> 61 ;
62 [label="credit_history <= 1.5\nentropy = 0.874\nsamples = 17\nvalue = [5, 12]\nclass = Yes"] ;
60 -> 62 ;
63 [label="employment_duration <= 2.0\nentropy = 0.98\nsamples = 12\nvalue = [5, 7]\nclass = Yes"] ;
62 -> 63 ;
64 [label="percent_of_income <= 1.5\nentropy = 0.764\nsamples = 9\nvalue = [2, 7]\nclass = Yes"] ;
63 -> 64 ;
65 [label="entropy = 0.0\nsamples = 2\nvalue = [2, 0]\nclass = No"] ;
64 -> 65 ;
66 [label="entropy = 0.0\nsamples = 7\nvalue = [0, 7]\nclass = Yes"] ;
64 -> 66 ;
67 [label="entropy = 0.0\nsamples = 3\nvalue = [3, 0]\nclass = No"] ;
63 -> 67 ;
68 [label="entropy = 0.0\nsamples = 5\nvalue = [0, 5]\nclass = Yes"] ;
62 -> 68 ;
69 [label="amount <= 1071.5\nentropy = 0.454\nsamples = 21\nvalue = [19, 2]\nclass = No"] ;
59 -> 69 ;
70 [label="amount <= 713.0\nentropy = 1.0\nsamples = 4\nvalue = [2, 2]\nclass = No"] ;
69 -> 70 ;
71 [label="entropy = 0.0\nsamples = 2\nvalue = [2, 0]\nclass = No"] ;
70 -> 71 ;
72 [label="entropy = 0.0\nsamples = 2\nvalue = [0, 2]\nclass = Yes"] ;
70 -> 72 ;
73 [label="entropy = 0.0\nsamples = 17\nvalue = [17, 0]\nclass = No"] ;
69 -> 73 ;
74 [label="amount <= 4180.5\nentropy = 0.458\nsamples = 280\nvalue = [253, 27]\nclass = No"] ;
58 -> 74 ;
75 [label="age <= 22.5\nentropy = 0.379\nsamples = 231\nvalue = [214, 17]\nclass = No"] ;
74 -> 75 ;
76 [label="age <= 21.5\nentropy = 0.991\nsamples = 9\nvalue = [5, 4]\nclass = No"] ;
75 -> 76 ;
77 [label="age <= 19.5\nentropy = 0.65\nsamples = 6\nvalue = [5, 1]\nclass = No"] ;
76 -> 77 ;
78 [label="entropy = 0.0\nsamples = 1\nvalue = [0, 1]\nclass = Yes"] ;
77 -> 78 ;
79 [label="entropy = 0.0\nsamples = 5\nvalue = [5, 0]\nclass = No"] ;
77 -> 79 ;
80 [label="entropy = 0.0\nsamples = 3\nvalue = [0, 3]\nclass = Yes"] ;
76 -> 80 ;
81 [label="checking_balance <= 2.5\nentropy = 0.322\nsamples = 222\nvalue = [209, 13]\nclass = No"] ;
75 -> 81 ;
82 [label="years_at_residence <= 1.5\nentropy = 0.711\nsamples = 36\nvalue = [29, 7]\nclass = No"] ;
81 -> 82 ;
83 [label="percent_of_income <= 1.5\nentropy = 1.0\nsamples = 6\nvalue = [3, 3]\nclass = No"] ;
82 -> 83 ;
84 [label="entropy = 0.0\nsamples = 2\nvalue = [2, 0]\nclass = No"] ;
83 -> 84 ;
85 [label="entropy = 0.811\nsamples = 4\nvalue = [1, 3]\nclass = Yes"] ;
83 -> 85 ;
86 [label="age <= 64.5\nentropy = 0.567\nsamples = 30\nvalue = [26, 4]\nclass = No"] ;
82 -> 86 ;
87 [label="entropy = 0.48\nsamples = 29\nvalue = [26, 3]\nclass = No"] ;
86 -> 87 ;
88 [label="entropy = 0.0\nsamples = 1\nvalue = [0, 1]\nclass = Yes"] ;
86 -> 88 ;
89 [label="other_credit <= 1.5\nentropy = 0.206\nsamples = 186\nvalue = [180, 6]\nclass = No"] ;
81 -> 89 ;
90 [label="age <= 30.5\nentropy = 0.154\nsamples = 179\nvalue = [175, 4]\nclass = No"] ;
89 -> 90 ;
91 [label="entropy = 0.345\nsamples = 62\nvalue = [58, 4]\nclass = No"] ;
90 -> 91 ;
92 [label="entropy = 0.0\nsamples = 117\nvalue = [117, 0]\nclass = No"] ;
90 -> 92 ;
93 [label="housing <= 0.5\nentropy = 0.863\nsamples = 7\nvalue = [5, 2]\nclass = No"] ;
89 -> 93 ;
94 [label="entropy = 0.0\nsamples = 1\nvalue = [0, 1]\nclass = Yes"] ;
93 -> 94 ;
95 [label="entropy = 0.65\nsamples = 6\nvalue = [5, 1]\nclass = No"] ;
93 -> 95 ;
96 [label="employment_duration <= 2.5\nentropy = 0.73\nsamples = 49\nvalue = [39, 10]\nclass = No"] ;
74 -> 96 ;
97 [label="employment_duration <= 1.5\nentropy = 0.842\nsamples = 37\nvalue = [27, 10]\nclass = No"] ;
96 -> 97 ;
98 [label="amount <= 4640.0\nentropy = 0.663\nsamples = 29\nvalue = [24, 5]\nclass = No"] ;
97 -> 98 ;
99 [label="credit_history <= 0.5\nentropy = 0.985\nsamples = 7\nvalue = [3, 4]\nclass = Yes"] ;
98 -> 99 ;
100 [label="entropy = 0.0\nsamples = 2\nvalue = [2, 0]\nclass = No"] ;
99 -> 100 ;
101 [label="entropy = 0.722\nsamples = 5\nvalue = [1, 4]\nclass = Yes"] ;
99 -> 101 ;
102 [label="other_credit <= 1.5\nentropy = 0.267\nsamples = 22\nvalue = [21, 1]\nclass = No"] ;
98 -> 102 ;
103 [label="entropy = 0.0\nsamples = 17\nvalue = [17, 0]\nclass = No"] ;
102 -> 103 ;
104 [label="entropy = 0.722\nsamples = 5\nvalue = [4, 1]\nclass = No"] ;
102 -> 104 ;
105 [label="amount <= 5523.0\nentropy = 0.954\nsamples = 8\nvalue = [3, 5]\nclass = Yes"] ;
97 -> 105 ;
106 [label="months_loan_duration <= 9.0\nentropy = 0.811\nsamples = 4\nvalue = [3, 1]\nclass = No"] ;
105 -> 106 ;
107 [label="entropy = 0.0\nsamples = 1\nvalue = [0, 1]\nclass = Yes"] ;
106 -> 107 ;
108 [label="entropy = 0.0\nsamples = 3\nvalue = [3, 0]\nclass = No"] ;
106 -> 108 ;
109 [label="entropy = 0.0\nsamples = 4\nvalue = [0, 4]\nclass = Yes"] ;
105 -> 109 ;
110 [label="entropy = 0.0\nsamples = 12\nvalue = [12, 0]\nclass = No"] ;
96 -> 110 ;
}