digraph Tree {
node [shape=box] ;
0 [label="Glucose <= 127.5\nentropy = 0.926\nsamples = 537\nvalue = [354, 183]\nclass = 1"] ;
1 [label="BMI <= 26.45\nentropy = 0.72\nsamples = 342\nvalue = [274, 68]\nclass = 1"] ;
0 -> 1 [labeldistance=2.5, labelangle=45, headlabel="True"] ;
2 [label="BMI <= 9.1\nentropy = 0.201\nsamples = 96\nvalue = [93, 3]\nclass = 1"] ;
1 -> 2 ;
3 [label="Pregnancies <= 7.5\nentropy = 0.918\nsamples = 6\nvalue = [4, 2]\nclass = 1"] ;
2 -> 3 ;
4 [label="entropy = 0.0\nsamples = 4\nvalue = [4, 0]\nclass = 1"] ;
3 -> 4 ;
5 [label="entropy = 0.0\nsamples = 2\nvalue = [0, 2]\nclass = 2"] ;
3 -> 5 ;
6 [label="DiabetesPedigreeFunction <= 0.669\nentropy = 0.088\nsamples = 90\nvalue = [89, 1]\nclass = 1"] ;
2 -> 6 ;
7 [label="entropy = 0.0\nsamples = 75\nvalue = [75, 0]\nclass = 1"] ;
6 -> 7 ;
8 [label="DiabetesPedigreeFunction <= 0.706\nentropy = 0.353\nsamples = 15\nvalue = [14, 1]\nclass = 1"] ;
6 -> 8 ;
9 [label="entropy = 0.0\nsamples = 1\nvalue = [0, 1]\nclass = 2"] ;
8 -> 9 ;
10 [label="entropy = 0.0\nsamples = 14\nvalue = [14, 0]\nclass = 1"] ;
8 -> 10 ;
11 [label="Age <= 27.5\nentropy = 0.833\nsamples = 246\nvalue = [181, 65]\nclass = 1"] ;
1 -> 11 ;
12 [label="BMI <= 30.95\nentropy = 0.544\nsamples = 112\nvalue = [98, 14]\nclass = 1"] ;
11 -> 12 ;
13 [label="Pregnancies <= 7.0\nentropy = 0.159\nsamples = 43\nvalue = [42, 1]\nclass = 1"] ;
12 -> 13 ;
14 [label="entropy = 0.0\nsamples = 42\nvalue = [42, 0]\nclass = 1"] ;
13 -> 14 ;
15 [label="entropy = 0.0\nsamples = 1\nvalue = [0, 1]\nclass = 2"] ;
13 -> 15 ;
16 [label="Age <= 22.5\nentropy = 0.698\nsamples = 69\nvalue = [56, 13]\nclass = 1"] ;
12 -> 16 ;
17 [label="entropy = 0.0\nsamples = 17\nvalue = [17, 0]\nclass = 1"] ;
16 -> 17 ;
18 [label="BloodPressure <= 37.0\nentropy = 0.811\nsamples = 52\nvalue = [39, 13]\nclass = 1"] ;
16 -> 18 ;
19 [label="entropy = 0.0\nsamples = 2\nvalue = [0, 2]\nclass = 2"] ;
18 -> 19 ;
20 [label="Insulin <= 162.5\nentropy = 0.76\nsamples = 50\nvalue = [39, 11]\nclass = 1"] ;
18 -> 20 ;
21 [label="BloodPressure <= 81.0\nentropy = 0.811\nsamples = 44\nvalue = [33, 11]\nclass = 1"] ;
20 -> 21 ;
22 [label="BloodPressure <= 53.0\nentropy = 0.722\nsamples = 40\nvalue = [32, 8]\nclass = 1"] ;
21 -> 22 ;
23 [label="SkinThickness <= 39.5\nentropy = 0.918\nsamples = 3\nvalue = [1, 2]\nclass = 2"] ;
22 -> 23 ;
24 [label="entropy = 0.0\nsamples = 2\nvalue = [0, 2]\nclass = 2"] ;
23 -> 24 ;
25 [label="entropy = 0.0\nsamples = 1\nvalue = [1, 0]\nclass = 1"] ;
23 -> 25 ;
26 [label="Insulin <= 146.0\nentropy = 0.639\nsamples = 37\nvalue = [31, 6]\nclass = 1"] ;
22 -> 26 ;
27 [label="Glucose <= 106.5\nentropy = 0.581\nsamples = 36\nvalue = [31, 5]\nclass = 1"] ;
26 -> 27 ;
28 [label="Age <= 26.5\nentropy = 0.276\nsamples = 21\nvalue = [20, 1]\nclass = 1"] ;
27 -> 28 ;
29 [label="entropy = 0.0\nsamples = 18\nvalue = [18, 0]\nclass = 1"] ;
28 -> 29 ;
30 [label="Glucose <= 90.5\nentropy = 0.918\nsamples = 3\nvalue = [2, 1]\nclass = 1"] ;
28 -> 30 ;
31 [label="entropy = 0.0\nsamples = 1\nvalue = [0, 1]\nclass = 2"] ;
30 -> 31 ;
32 [label="entropy = 0.0\nsamples = 2\nvalue = [2, 0]\nclass = 1"] ;
30 -> 32 ;
33 [label="Glucose <= 115.0\nentropy = 0.837\nsamples = 15\nvalue = [11, 4]\nclass = 1"] ;
27 -> 33 ;
34 [label="DiabetesPedigreeFunction <= 0.722\nentropy = 0.991\nsamples = 9\nvalue = [5, 4]\nclass = 1"] ;
33 -> 34 ;
35 [label="BMI <= 33.45\nentropy = 0.863\nsamples = 7\nvalue = [5, 2]\nclass = 1"] ;
34 -> 35 ;
36 [label="entropy = 0.0\nsamples = 2\nvalue = [0, 2]\nclass = 2"] ;
35 -> 36 ;
37 [label="entropy = 0.0\nsamples = 5\nvalue = [5, 0]\nclass = 1"] ;
35 -> 37 ;
38 [label="entropy = 0.0\nsamples = 2\nvalue = [0, 2]\nclass = 2"] ;
34 -> 38 ;
39 [label="entropy = 0.0\nsamples = 6\nvalue = [6, 0]\nclass = 1"] ;
33 -> 39 ;
40 [label="entropy = 0.0\nsamples = 1\nvalue = [0, 1]\nclass = 2"] ;
26 -> 40 ;
41 [label="BloodPressure <= 88.0\nentropy = 0.811\nsamples = 4\nvalue = [1, 3]\nclass = 2"] ;
21 -> 41 ;
42 [label="entropy = 0.0\nsamples = 3\nvalue = [0, 3]\nclass = 2"] ;
41 -> 42 ;
43 [label="entropy = 0.0\nsamples = 1\nvalue = [1, 0]\nclass = 1"] ;
41 -> 43 ;
44 [label="entropy = 0.0\nsamples = 6\nvalue = [6, 0]\nclass = 1"] ;
20 -> 44 ;
45 [label="Glucose <= 89.5\nentropy = 0.958\nsamples = 134\nvalue = [83, 51]\nclass = 1"] ;
11 -> 45 ;
46 [label="Pregnancies <= 11.5\nentropy = 0.267\nsamples = 22\nvalue = [21, 1]\nclass = 1"] ;
45 -> 46 ;
47 [label="entropy = 0.0\nsamples = 21\nvalue = [21, 0]\nclass = 1"] ;
46 -> 47 ;
48 [label="entropy = 0.0\nsamples = 1\nvalue = [0, 1]\nclass = 2"] ;
46 -> 48 ;
49 [label="DiabetesPedigreeFunction <= 0.619\nentropy = 0.992\nsamples = 112\nvalue = [62, 50]\nclass = 1"] ;
45 -> 49 ;
50 [label="SkinThickness <= 27.5\nentropy = 0.931\nsamples = 78\nvalue = [51, 27]\nclass = 1"] ;
49 -> 50 ;
51 [label="BloodPressure <= 83.0\nentropy = 0.999\nsamples = 46\nvalue = [24, 22]\nclass = 1"] ;
50 -> 51 ;
52 [label="Age <= 54.5\nentropy = 0.974\nsamples = 32\nvalue = [13, 19]\nclass = 2"] ;
51 -> 52 ;
53 [label="DiabetesPedigreeFunction <= 0.167\nentropy = 0.906\nsamples = 28\nvalue = [9, 19]\nclass = 2"] ;
52 -> 53 ;
54 [label="entropy = 0.0\nsamples = 2\nvalue = [2, 0]\nclass = 1"] ;
53 -> 54 ;
55 [label="Pregnancies <= 7.5\nentropy = 0.84\nsamples = 26\nvalue = [7, 19]\nclass = 2"] ;
53 -> 55 ;
56 [label="Age <= 34.5\nentropy = 0.629\nsamples = 19\nvalue = [3, 16]\nclass = 2"] ;
55 -> 56 ;
57 [label="BloodPressure <= 64.0\nentropy = 1.0\nsamples = 6\nvalue = [3, 3]\nclass = 1"] ;
56 -> 57 ;
58 [label="Pregnancies <= 2.5\nentropy = 0.811\nsamples = 4\nvalue = [1, 3]\nclass = 2"] ;
57 -> 58 ;
59 [label="entropy = 0.0\nsamples = 1\nvalue = [1, 0]\nclass = 1"] ;
58 -> 59 ;
60 [label="entropy = 0.0\nsamples = 3\nvalue = [0, 3]\nclass = 2"] ;
58 -> 60 ;
61 [label="entropy = 0.0\nsamples = 2\nvalue = [2, 0]\nclass = 1"] ;
57 -> 61 ;
62 [label="entropy = 0.0\nsamples = 13\nvalue = [0, 13]\nclass = 2"] ;
56 -> 62 ;
63 [label="Glucose <= 107.0\nentropy = 0.985\nsamples = 7\nvalue = [4, 3]\nclass = 1"] ;
55 -> 63 ;
64 [label="entropy = 0.0\nsamples = 3\nvalue = [3, 0]\nclass = 1"] ;
63 -> 64 ;
65 [label="BMI <= 31.15\nentropy = 0.811\nsamples = 4\nvalue = [1, 3]\nclass = 2"] ;
63 -> 65 ;
66 [label="entropy = 0.0\nsamples = 2\nvalue = [0, 2]\nclass = 2"] ;
65 -> 66 ;
67 [label="BloodPressure <= 67.0\nentropy = 1.0\nsamples = 2\nvalue = [1, 1]\nclass = 1"] ;
65 -> 67 ;
68 [label="entropy = 0.0\nsamples = 1\nvalue = [0, 1]\nclass = 2"] ;
67 -> 68 ;
69 [label="entropy = 0.0\nsamples = 1\nvalue = [1, 0]\nclass = 1"] ;
67 -> 69 ;
70 [label="entropy = 0.0\nsamples = 4\nvalue = [4, 0]\nclass = 1"] ;
52 -> 70 ;
71 [label="BMI <= 41.2\nentropy = 0.75\nsamples = 14\nvalue = [11, 3]\nclass = 1"] ;
51 -> 71 ;
72 [label="SkinThickness <= 18.0\nentropy = 0.414\nsamples = 12\nvalue = [11, 1]\nclass = 1"] ;
71 -> 72 ;
73 [label="entropy = 0.0\nsamples = 11\nvalue = [11, 0]\nclass = 1"] ;
72 -> 73 ;
74 [label="entropy = 0.0\nsamples = 1\nvalue = [0, 1]\nclass = 2"] ;
72 -> 74 ;
75 [label="entropy = 0.0\nsamples = 2\nvalue = [0, 2]\nclass = 2"] ;
71 -> 75 ;
76 [label="BMI <= 43.1\nentropy = 0.625\nsamples = 32\nvalue = [27, 5]\nclass = 1"] ;
50 -> 76 ;
77 [label="BloodPressure <= 67.0\nentropy = 0.48\nsamples = 29\nvalue = [26, 3]\nclass = 1"] ;
76 -> 77 ;
78 [label="Glucose <= 101.5\nentropy = 0.954\nsamples = 8\nvalue = [5, 3]\nclass = 1"] ;
77 -> 78 ;
79 [label="entropy = 0.0\nsamples = 4\nvalue = [4, 0]\nclass = 1"] ;
78 -> 79 ;
80 [label="Age <= 30.5\nentropy = 0.811\nsamples = 4\nvalue = [1, 3]\nclass = 2"] ;
78 -> 80 ;
81 [label="entropy = 0.0\nsamples = 1\nvalue = [1, 0]\nclass = 1"] ;
80 -> 81 ;
82 [label="entropy = 0.0\nsamples = 3\nvalue = [0, 3]\nclass = 2"] ;
80 -> 82 ;
83 [label="entropy = 0.0\nsamples = 21\nvalue = [21, 0]\nclass = 1"] ;
77 -> 83 ;
84 [label="BloodPressure <= 60.0\nentropy = 0.918\nsamples = 3\nvalue = [1, 2]\nclass = 2"] ;
76 -> 84 ;
85 [label="entropy = 0.0\nsamples = 1\nvalue = [1, 0]\nclass = 1"] ;
84 -> 85 ;
86 [label="entropy = 0.0\nsamples = 2\nvalue = [0, 2]\nclass = 2"] ;
84 -> 86 ;
87 [label="BloodPressure <= 87.0\nentropy = 0.908\nsamples = 34\nvalue = [11, 23]\nclass = 2"] ;
49 -> 87 ;
88 [label="Pregnancies <= 7.5\nentropy = 0.784\nsamples = 30\nvalue = [7, 23]\nclass = 2"] ;
87 -> 88 ;
89 [label="Age <= 33.5\nentropy = 0.934\nsamples = 20\nvalue = [7, 13]\nclass = 2"] ;
88 -> 89 ;
90 [label="BMI <= 35.65\nentropy = 0.544\nsamples = 8\nvalue = [1, 7]\nclass = 2"] ;
89 -> 90 ;
91 [label="entropy = 0.0\nsamples = 6\nvalue = [0, 6]\nclass = 2"] ;
90 -> 91 ;
92 [label="Insulin <= 189.0\nentropy = 1.0\nsamples = 2\nvalue = [1, 1]\nclass = 1"] ;
90 -> 92 ;
93 [label="entropy = 0.0\nsamples = 1\nvalue = [1, 0]\nclass = 1"] ;
92 -> 93 ;
94 [label="entropy = 0.0\nsamples = 1\nvalue = [0, 1]\nclass = 2"] ;
92 -> 94 ;
95 [label="Glucose <= 116.5\nentropy = 1.0\nsamples = 12\nvalue = [6, 6]\nclass = 1"] ;
89 -> 95 ;
96 [label="BloodPressure <= 68.0\nentropy = 0.811\nsamples = 8\nvalue = [2, 6]\nclass = 2"] ;
95 -> 96 ;
97 [label="Insulin <= 39.5\nentropy = 0.918\nsamples = 3\nvalue = [2, 1]\nclass = 1"] ;
96 -> 97 ;
98 [label="entropy = 0.0\nsamples = 1\nvalue = [0, 1]\nclass = 2"] ;
97 -> 98 ;
99 [label="entropy = 0.0\nsamples = 2\nvalue = [2, 0]\nclass = 1"] ;
97 -> 99 ;
100 [label="entropy = 0.0\nsamples = 5\nvalue = [0, 5]\nclass = 2"] ;
96 -> 100 ;
101 [label="entropy = 0.0\nsamples = 4\nvalue = [4, 0]\nclass = 1"] ;
95 -> 101 ;
102 [label="entropy = 0.0\nsamples = 10\nvalue = [0, 10]\nclass = 2"] ;
88 -> 102 ;
103 [label="entropy = 0.0\nsamples = 4\nvalue = [4, 0]\nclass = 1"] ;
87 -> 103 ;
104 [label="BMI <= 28.15\nentropy = 0.977\nsamples = 195\nvalue = [80, 115]\nclass = 2"] ;
0 -> 104 [labeldistance=2.5, labelangle=-45, headlabel="False"] ;
105 [label="Glucose <= 145.5\nentropy = 0.82\nsamples = 43\nvalue = [32, 11]\nclass = 1"] ;
104 -> 105 ;
106 [label="BloodPressure <= 73.0\nentropy = 0.402\nsamples = 25\nvalue = [23, 2]\nclass = 1"] ;
105 -> 106 ;
107 [label="Glucose <= 129.5\nentropy = 0.722\nsamples = 10\nvalue = [8, 2]\nclass = 1"] ;
106 -> 107 ;
108 [label="entropy = 0.0\nsamples = 1\nvalue = [0, 1]\nclass = 2"] ;
107 -> 108 ;
109 [label="BloodPressure <= 71.0\nentropy = 0.503\nsamples = 9\nvalue = [8, 1]\nclass = 1"] ;
107 -> 109 ;
110 [label="entropy = 0.0\nsamples = 8\nvalue = [8, 0]\nclass = 1"] ;
109 -> 110 ;
111 [label="entropy = 0.0\nsamples = 1\nvalue = [0, 1]\nclass = 2"] ;
109 -> 111 ;
112 [label="entropy = 0.0\nsamples = 15\nvalue = [15, 0]\nclass = 1"] ;
106 -> 112 ;
113 [label="Age <= 25.5\nentropy = 1.0\nsamples = 18\nvalue = [9, 9]\nclass = 1"] ;
105 -> 113 ;
114 [label="entropy = 0.0\nsamples = 3\nvalue = [3, 0]\nclass = 1"] ;
113 -> 114 ;
115 [label="Age <= 62.0\nentropy = 0.971\nsamples = 15\nvalue = [6, 9]\nclass = 2"] ;
113 -> 115 ;
116 [label="BMI <= 22.15\nentropy = 0.811\nsamples = 12\nvalue = [3, 9]\nclass = 2"] ;
115 -> 116 ;
117 [label="entropy = 0.0\nsamples = 1\nvalue = [1, 0]\nclass = 1"] ;
116 -> 117 ;
118 [label="BMI <= 27.0\nentropy = 0.684\nsamples = 11\nvalue = [2, 9]\nclass = 2"] ;
116 -> 118 ;
119 [label="entropy = 0.0\nsamples = 7\nvalue = [0, 7]\nclass = 2"] ;
118 -> 119 ;
120 [label="Pregnancies <= 4.5\nentropy = 1.0\nsamples = 4\nvalue = [2, 2]\nclass = 1"] ;
118 -> 120 ;
121 [label="entropy = 0.0\nsamples = 2\nvalue = [0, 2]\nclass = 2"] ;
120 -> 121 ;
122 [label="entropy = 0.0\nsamples = 2\nvalue = [2, 0]\nclass = 1"] ;
120 -> 122 ;
123 [label="entropy = 0.0\nsamples = 3\nvalue = [3, 0]\nclass = 1"] ;
115 -> 123 ;
124 [label="Glucose <= 158.5\nentropy = 0.9\nsamples = 152\nvalue = [48, 104]\nclass = 2"] ;
104 -> 124 ;
125 [label="Age <= 30.5\nentropy = 0.985\nsamples = 96\nvalue = [41, 55]\nclass = 2"] ;
124 -> 125 ;
126 [label="BloodPressure <= 61.0\nentropy = 0.984\nsamples = 47\nvalue = [27, 20]\nclass = 1"] ;
125 -> 126 ;
127 [label="BMI <= 29.85\nentropy = 0.722\nsamples = 10\nvalue = [2, 8]\nclass = 2"] ;
126 -> 127 ;
128 [label="entropy = 0.0\nsamples = 2\nvalue = [2, 0]\nclass = 1"] ;
127 -> 128 ;
129 [label="entropy = 0.0\nsamples = 8\nvalue = [0, 8]\nclass = 2"] ;
127 -> 129 ;
130 [label="Insulin <= 260.0\nentropy = 0.909\nsamples = 37\nvalue = [25, 12]\nclass = 1"] ;
126 -> 130 ;
131 [label="BloodPressure <= 85.5\nentropy = 0.991\nsamples = 27\nvalue = [15, 12]\nclass = 1"] ;
130 -> 131 ;
132 [label="BloodPressure <= 77.0\nentropy = 0.932\nsamples = 23\nvalue = [15, 8]\nclass = 1"] ;
131 -> 132 ;
133 [label="BloodPressure <= 64.5\nentropy = 1.0\nsamples = 16\nvalue = [8, 8]\nclass = 1"] ;
132 -> 133 ;
134 [label="entropy = 0.0\nsamples = 3\nvalue = [3, 0]\nclass = 1"] ;
133 -> 134 ;
135 [label="DiabetesPedigreeFunction <= 0.415\nentropy = 0.961\nsamples = 13\nvalue = [5, 8]\nclass = 2"] ;
133 -> 135 ;
136 [label="Pregnancies <= 0.5\nentropy = 0.954\nsamples = 8\nvalue = [5, 3]\nclass = 1"] ;
135 -> 136 ;
137 [label="DiabetesPedigreeFunction <= 0.183\nentropy = 0.811\nsamples = 4\nvalue = [1, 3]\nclass = 2"] ;
136 -> 137 ;
138 [label="entropy = 0.0\nsamples = 1\nvalue = [1, 0]\nclass = 1"] ;
137 -> 138 ;
139 [label="entropy = 0.0\nsamples = 3\nvalue = [0, 3]\nclass = 2"] ;
137 -> 139 ;
140 [label="entropy = 0.0\nsamples = 4\nvalue = [4, 0]\nclass = 1"] ;
136 -> 140 ;
141 [label="entropy = 0.0\nsamples = 5\nvalue = [0, 5]\nclass = 2"] ;
135 -> 141 ;
142 [label="entropy = 0.0\nsamples = 7\nvalue = [7, 0]\nclass = 1"] ;
132 -> 142 ;
143 [label="entropy = 0.0\nsamples = 4\nvalue = [0, 4]\nclass = 2"] ;
131 -> 143 ;
144 [label="entropy = 0.0\nsamples = 10\nvalue = [10, 0]\nclass = 1"] ;
130 -> 144 ;
145 [label="Age <= 34.5\nentropy = 0.863\nsamples = 49\nvalue = [14, 35]\nclass = 2"] ;
125 -> 145 ;
146 [label="entropy = 0.0\nsamples = 6\nvalue = [0, 6]\nclass = 2"] ;
145 -> 146 ;
147 [label="Age <= 41.5\nentropy = 0.91\nsamples = 43\nvalue = [14, 29]\nclass = 2"] ;
145 -> 147 ;
148 [label="BMI <= 34.4\nentropy = 0.997\nsamples = 15\nvalue = [8, 7]\nclass = 1"] ;
147 -> 148 ;
149 [label="entropy = 0.0\nsamples = 5\nvalue = [5, 0]\nclass = 1"] ;
148 -> 149 ;
150 [label="Glucose <= 129.5\nentropy = 0.881\nsamples = 10\nvalue = [3, 7]\nclass = 2"] ;
148 -> 150 ;
151 [label="entropy = 0.0\nsamples = 2\nvalue = [2, 0]\nclass = 1"] ;
150 -> 151 ;
152 [label="Glucose <= 152.5\nentropy = 0.544\nsamples = 8\nvalue = [1, 7]\nclass = 2"] ;
150 -> 152 ;
153 [label="entropy = 0.0\nsamples = 7\nvalue = [0, 7]\nclass = 2"] ;
152 -> 153 ;
154 [label="entropy = 0.0\nsamples = 1\nvalue = [1, 0]\nclass = 1"] ;
152 -> 154 ;
155 [label="DiabetesPedigreeFunction <= 0.222\nentropy = 0.75\nsamples = 28\nvalue = [6, 22]\nclass = 2"] ;
147 -> 155 ;
156 [label="DiabetesPedigreeFunction <= 0.184\nentropy = 0.985\nsamples = 7\nvalue = [4, 3]\nclass = 1"] ;
155 -> 156 ;
157 [label="entropy = 0.0\nsamples = 3\nvalue = [0, 3]\nclass = 2"] ;
156 -> 157 ;
158 [label="entropy = 0.0\nsamples = 4\nvalue = [4, 0]\nclass = 1"] ;
156 -> 158 ;
159 [label="DiabetesPedigreeFunction <= 1.567\nentropy = 0.454\nsamples = 21\nvalue = [2, 19]\nclass = 2"] ;
155 -> 159 ;
160 [label="BloodPressure <= 68.0\nentropy = 0.286\nsamples = 20\nvalue = [1, 19]\nclass = 2"] ;
159 -> 160 ;
161 [label="BloodPressure <= 33.0\nentropy = 1.0\nsamples = 2\nvalue = [1, 1]\nclass = 1"] ;
160 -> 161 ;
162 [label="entropy = 0.0\nsamples = 1\nvalue = [0, 1]\nclass = 2"] ;
161 -> 162 ;
163 [label="entropy = 0.0\nsamples = 1\nvalue = [1, 0]\nclass = 1"] ;
161 -> 163 ;
164 [label="entropy = 0.0\nsamples = 18\nvalue = [0, 18]\nclass = 2"] ;
160 -> 164 ;
165 [label="entropy = 0.0\nsamples = 1\nvalue = [1, 0]\nclass = 1"] ;
159 -> 165 ;
166 [label="Age <= 30.5\nentropy = 0.544\nsamples = 56\nvalue = [7, 49]\nclass = 2"] ;
124 -> 166 ;
167 [label="entropy = 0.0\nsamples = 20\nvalue = [0, 20]\nclass = 2"] ;
166 -> 167 ;
168 [label="DiabetesPedigreeFunction <= 1.342\nentropy = 0.711\nsamples = 36\nvalue = [7, 29]\nclass = 2"] ;
166 -> 168 ;
169 [label="BMI <= 45.95\nentropy = 0.602\nsamples = 34\nvalue = [5, 29]\nclass = 2"] ;
168 -> 169 ;
170 [label="DiabetesPedigreeFunction <= 0.348\nentropy = 0.533\nsamples = 33\nvalue = [4, 29]\nclass = 2"] ;
169 -> 170 ;
171 [label="BMI <= 35.3\nentropy = 0.837\nsamples = 15\nvalue = [4, 11]\nclass = 2"] ;
170 -> 171 ;
172 [label="SkinThickness <= 30.5\nentropy = 0.946\nsamples = 11\nvalue = [4, 7]\nclass = 2"] ;
171 -> 172 ;
173 [label="BMI <= 34.6\nentropy = 0.764\nsamples = 9\nvalue = [2, 7]\nclass = 2"] ;
172 -> 173 ;
174 [label="Insulin <= 127.5\nentropy = 0.544\nsamples = 8\nvalue = [1, 7]\nclass = 2"] ;
173 -> 174 ;
175 [label="entropy = 0.0\nsamples = 6\nvalue = [0, 6]\nclass = 2"] ;
174 -> 175 ;
176 [label="BloodPressure <= 66.0\nentropy = 1.0\nsamples = 2\nvalue = [1, 1]\nclass = 1"] ;
174 -> 176 ;
177 [label="entropy = 0.0\nsamples = 1\nvalue = [0, 1]\nclass = 2"] ;
176 -> 177 ;
178 [label="entropy = 0.0\nsamples = 1\nvalue = [1, 0]\nclass = 1"] ;
176 -> 178 ;
179 [label="entropy = 0.0\nsamples = 1\nvalue = [1, 0]\nclass = 1"] ;
173 -> 179 ;
180 [label="entropy = 0.0\nsamples = 2\nvalue = [2, 0]\nclass = 1"] ;
172 -> 180 ;
181 [label="entropy = 0.0\nsamples = 4\nvalue = [0, 4]\nclass = 2"] ;
171 -> 181 ;
182 [label="entropy = 0.0\nsamples = 18\nvalue = [0, 18]\nclass = 2"] ;
170 -> 182 ;
183 [label="entropy = 0.0\nsamples = 1\nvalue = [1, 0]\nclass = 1"] ;
169 -> 183 ;
184 [label="entropy = 0.0\nsamples = 2\nvalue = [2, 0]\nclass = 1"] ;
168 -> 184 ;
}